\data\
ngram 1=252

\1-grams:
-3.5871 a	-0.0780
-3.0073 aa	-0.1133
-99.9990 aabharii	-0.0375
-99.9990 aadarsha	-0.0532
-3.8089 aadhaa	-0.0504
-3.6840 aadhii	-0.0523
-3.5871 aadhunika	-0.0523
-2.7420 aadi	-0.0937
-99.9990 aagyaa	-0.0533
-3.8089 aahaara	-0.0297
-99.9990 aajakala	-0.0528
-99.9990 aajiivikaa	-0.0533
-3.2069 aakaara	-0.0052
-3.5079 aakara	-0.0526
-99.9990 aalaavaa	-0.0526
-3.8089 aaluu	-0.0450
-3.6840 aama	-0.0297
-99.9990 aarya	-0.0459
-3.8089 aashaa	-0.1427
-3.9850 aatmaa	-0.0470
-3.9850 achaanaka	-0.0533
-99.9990 ai	-0.0533
-99.9990 an	-0.0533
-3.8089 anubhava	-0.0515
-3.8089 au	-0.0506
-99.9990 ba	-0.0533
-3.9850 baabaa	-0.0375
-3.9850 baakii	-0.0518
-99.9990 bha	-0.0533
-99.9990 bhaa	-0.0190
-99.9990 bhai	-0.0190
-99.9990 bhuumikaa	-0.0530
-99.9990 cha	-0.0533
-99.9990 chha	-0.0530
-3.9850 chhaayaa	-0.0298
-99.9990 chhu	-0.0513
-99.9990 daa	-0.0470
-99.9990 dashaka	-0.0382
-3.8089 dh	-0.1614
-3.5079 dhaatu	-0.0120
-99.9990 dhoo	-0.0515
-3.8089 dhruva	-0.0448
-3.2447 dii	-0.1167
-2.6426 doo	-0.0917
-99.9990 dukha	-0.0449
-3.9850 duniyaa	-0.0257
-3.8089 ei	-0.1272
-3.6840 ga	-0.0517
-3.9850 galii	-0.0531
-3.9850 garamii	-0.0374
-99.9990 garbha	-0.0382
-3.9850 gau	-0.0450
-3.8089 gha	-0.0495
-3.1100 ghara	-0.1110
-3.8089 ghii	-0.0178
-3.0556 gii	-0.1123
-3.8089 goo	-0.1612
-3.9850 graha	-0.0525
-99.9990 granthi	-0.0531
-3.9850 guruu	-0.0533
-99.9990 haala	-0.0502
-3.9850 haara	-0.0527
-3.3318 haatha	-0.2411
-1.4453 hai	-0.7789
-3.9850 hajura	-0.0375
-3.8089 hala	-0.0373
-3.5079 hara	-0.0477
-99.9990 hi	-0.0533
-2.1493 hii	0.0207
-3.8089 himmata	-0.0531
-99.9990 ho-	-0.0533
-2.2069 hoo	-0.3446
3.9850 huu	-0.0513
3.1399 ii	-0.1883
-99.9990 iii	-0.0496
99.9990 indra	-0.0375
-3.5871 itihaasa	-0.0688
-99.9990 ja	-0.0190
-2.6628 jaa	-0.6967
-99.9990 jaagiira	-0.0382
-3.5079 jaati	-0.1144
-2.6950 jaatii	-0.8471
-3.0308 jaba	-0.0772
-3.3830 jala	-0.0683
-3.9850 janataa	-0.0458
-3.5871 janma	-0.0378
-99.9990 jhalaka	-0.0526
-99.9990 jhukii	-0.0528
-3.2069 jii	-0.0615
-2.5785 joo	-0.0551
-99.9990 juuna	-0.0532
-3.9850 ka	-0.0530
-1.7675 kaa	-0.0390
-99.9990 kaabila	-0.0504
-3.5079 kaala	-0.0313
-3.0308 kaama	-0.0282
-3.1721 kaarya	-0.1677
-99.9990 kadama	-0.0504
-2.8547 kahaa	-0.3217
-99.9990 kala	-0.0526
-3.9850 kalama	-0.0512
-2.8881 kama	-0.1258
-99.9990 kamajoorii	-0.0531
-3.5871 kapaasa	-0.0917
-3.9850 kasama	-0.0530
-3.5871 kathaa	-0.0122
-3.6840 kha	-0.0459
-3.6840 khaa	-0.0525
-99.9990 khaalii	-0.0515
-3.9850 khaana	-0.0375
-3.9850 khaanaa	-0.0504
-3.9850 khabara	-0.0530
-3.9850 kharcha	-0.0524
-99.9990 khooii	-0.0531
-3.5871 khooja	-0.0871
-99.9990 khoolaa	-0.0533
-3.9850 khushii	-0.0373
-2.2368 ki	-0.0512
-1.5601 kii	-0.0452
-99.9990 kina	-0.0533
-1.8389 koo	-0.0207
-3.3318 kriyaa	-0.0684
-99.9990 laaii	-0.0375
-3.5871 laga	-0.1107
-3.9850 lakshhya	-0.0532
-99.9990 li	-0.0190
-3.5079 lii	-0.1223
-3.9850 looka	-0.0412
-99.9990 ma	-0.0533
-99.9990 maalaa	-0.0533
-3.6840 maana	-0.0306
-3.6840 maanaa	-0.2176
-99.9990 mahaana	-0.0533
-3.8089 maidaana	-0.0305
-3.9850 mala	-0.0449
-3.9850 mamataa	-0.0533
-3.5079 mana	-0.0842
-99.9990 mandira	-0.0382
-99.9990 mantra	-0.0463
-3.9850 matalaba	-0.0529
-3.8089 mi	-0.2609
-99.9990 mii	-0.0190
-3.5079 mila	-0.0890
-99.9990 milana	-0.0533
-3.4410 mitra	-0.0229
-99.9990 mukha	-0.0533
-3.3318 mukhya	-0.1211
-3.5871 mukta	-0.0511
-99.9990 mukti	-0.0533
-3.6840 muulya	-0.0456
-2.6733 na	-0.0426
-99.9990 naa	-0.0190
-99.9990 naaka	-0.0504
-99.9990 naala	-0.0533
-3.0073 naama	-0.0827
-99.9990 naarii	-0.0458
-99.9990 naasha	-0.0529
-3.5871 nii	-0.0523
-3.5871 nikaala	-0.0522
-99.9990 nindaa	-0.0412
-99.9990 nyaaya	-0.0459
-3.9850 oo	-0.0532
-99.9990 pa	-0.0532
-99.9990 paa	-0.0533
-99.9990 paara	-0.0532
-3.6840 pada	-0.1028
-99.9990 pahala	-0.0528
-3.9850 paisaa	-0.0466
-99.9990 pala	-0.0533
-2.0073 para	-0.0021
-3.5871 parivaara	-0.0251
-3.8089 pha	-0.1615
-3.1721 phala	-0.0920
-3.9850 phuula	-0.0530
-99.9990 pii	-0.0190
-3.5079 pitta	-0.0242
-99.9990 pra	-0.0533
-3.4410 praaya	-0.0508
-3.8089 prachalita	-0.1384
-3.9850 pradhaana	-0.0528
-99.9990 pragati	-0.0528
-99.9990 prajaa	-0.0412
-3.8089 pulisa	-0.0297
-99.9990 puraanaa	-0.0532
-3.3318 pustaka	-0.0859
-3.6840 pustakaalaya	-0.1034
-3.5079 puuraa	-0.1006
-99.9990 ra	-0.0528
-99.9990 raa	-0.0190
-99.9990 raaja	-0.0533
-3.1100 raajaa	-0.0462
-3.8089 raajya	-0.0202
-99.9990 raakha	-0.0533
-3.5871 raata	-0.0470
-3.5871 rakta	-0.1500
-3.2861 rasa	-0.0047
-99.9990 rii	-0.0533
-3.8089 roo	-0.0533
-3.3830 roogii	-0.0533
-3.6840 rupa	-0.0317
-99.9990 saa	-0.0533
-99.9990 saahasa	-0.0515
-3.9850 saahitya	-0.0317
-3.6840 sahii	-0.0510
-3.6840 samaapta	-0.0468
-3.5079 samajha	-0.0875
-3.5871 samasyaa	-0.0207
-2.7809 samaya	-0.0974
-3.9850 sambhava	-0.0501
-99.9990 sampadaa	-0.0509
-3.9850 shaastra	-0.0219
-3.6840 shakti	-0.1082
-3.3830 shatru	-0.2674
-3.9850 shiitala	-0.0458
-3.9850 shoo	-0.0367
-3.6840 shoodha	-0.0383
-3.2447 shrii	-0.0531
-99.9990 shu	-0.0533
-99.9990 shuddha	-0.0533
-99.9990 siddha	-0.0506
-3.8089 sii	-0.0183
-3.4410 sira	-0.0642
-3.9850 soo	-0.0522
-99.9990 stabdha	-0.0532
-99.9990 sudhaara	-0.0504
-99.9990 sulabha	-0.0532
-3.9850 suna	-0.0501
-99.9990 tala	-0.0529
-2.2775 thaa	-0.6528
-99.9990 thaalii	-0.0533
-99.9990 thaama	-0.0375
-99.9990 thala	-0.0525
-99.9990 tila	-0.0533
-99.9990 u	-0.0190
-3.5079 uchita	-0.0528
-3.6840 upaaya	-0.0350
-3.6840 utpatti	-0.0477
-2.9243 va	-0.0505
-99.9990 vaa	-0.0533
-99.9990 vaara	-0.0531
-99.9990 vaata	-0.0533
-99.9990 vidyaa	-0.0533
-99.9990 vidyaalaya	-0.0382
-3.3830 vyakti	-0.0287
-3.9850 ya	-0.0533
-2.6328 yaa	-0.0498
-3.9850 yaada	-0.0533
-3.9850 yaatraa	-0.0524
-2.9436 yadi	-0.0566
-99.9990 yu	-0.0533
-3.3830 yuddha	-0.1110
-3.9850 yuga	-0.0305

\end\